svm_type c_svc
kernel_type rbf
gamma 0.04
nr_class 2
total_sv 93
rho -6.50337
label 1 -1
nr_sv 45 48
SV
100 1:0.431927 2:0.625595 3:0.316168 4:0.687124 5:0.684108 6:0.351261 7:0.753281 8:0.647899 9:0.376506 10:0.4897 11:0.333592 12:0.747595 13:0.753504 14:0.309022 15:0.533931 16:0.621245 17:0.566568 18:0.676895 19:0.366072 20:0.672934 21:0.671566 22:0.541201 23:0.552236 24:0.355208 25:0.547575 
100 1:0.550084 2:0.604241 3:0.267515 4:0.59853 5:0.594226 6:0.544848 7:0.488728 8:0.301472 9:0.553517 10:0.620014 11:0.258124 12:0.642499 13:0.645186 14:0.528737 15:0.528822 16:0.529729 17:0.524184 18:0.570576 19:0.307977 20:0.69531 21:0.696335 22:0.519636 23:0.41328 24:0.288782 25:0.483967 
100 1:0.503674 2:0.497182 3:0.270613 4:0.575537 5:0.571388 6:0.497396 7:0.486917 8:0.223376 9:0.451732 10:0.458934 11:0.237191 12:0.653619 13:0.656248 14:0.440699 15:0.365484 16:0.397934 17:0.515154 18:0.419947 19:0.327898 20:0.681472 21:0.682289 22:0.52866 23:0.300624 24:0.196209 25:0.374481 
100 1:0.376802 2:0.417686 3:0.320162 4:0.713881 5:0.711023 6:0.365641 7:0.416998 8:0.252526 9:0.463484 10:0.513267 11:0.263102 12:0.660887 13:0.661681 14:0.423033 15:0.553236 16:0.527653 17:0.363607 18:0.397801 19:0.3199 20:0.749679 21:0.749793 22:0.361772 23:0.268594 24:0.264246 25:0.505992 
100 1:0.451907 2:0.499388 3:0.381792 4:0.627011 5:0.63087 6:0.429297 7:0.471741 8:0.51427 9:0.423757 10:0.427402 11:0.317583 12:0.633554 13:0.62779 14:0.390196 15:0.47076 16:0.553841 17:0.424893 18:0.34656 19:0.346919 20:0.659258 21:0.662754 22:0.423809 23:0.320527 24:0.223873 25:0.41985 
100 1:0.333228 2:0.414699 3:0.371535 4:0.774861 5:0.777436 6:0.326271 7:0.339733 8:0.254026 9:0.382514 10:0.41452 11:0.360561 12:0.770063 13:0.769794 14:0.36867 15:0.269921 16:0.361306 17:0.461349 18:0.40895 19:0.300238 20:0.587175 21:0.587547 22:0.478227 23:0.175279 24:0.217082 25:0.556082 
100 1:0.393939 2:0.460711 3:0.330355 4:0.634959 5:0.633159 6:0.375617 7:0.326797 8:0.516683 9:0.567776 10:0.612144 11:0.273262 12:0.46836 13:0.467632 14:0.529208 15:0.631809 16:0.588546 17:0.361934 18:0.453271 19:0.353134 20:0.662757 21:0.664395 22:0.326424 23:0.391767 24:0.425528 25:0.363971 
100 1:0.488066 2:0.491583 3:0.410924 4:0.709747 5:0.707389 6:0.48035 7:0.383199 8:0.40243 9:0.586697 10:0.589614 11:0.305558 12:0.63453 13:0.642933 14:0.575601 15:0.465427 16:0.506599 17:0.408244 18:0.413009 19:0.443217 20:0.840722 21:0.840857 22:0.403135 23:0.318883 24:0.296145 25:0.598461 
100 1:0.513084 2:0.501338 3:0.410209 4:0.680104 5:0.677474 6:0.505671 7:0.461861 8:0.333536 9:0.556428 10:0.551631 11:0.341889 12:0.675143 13:0.684273 14:0.543452 15:0.453302 16:0.52898 17:0.46344 18:0.435418 19:0.432317 20:0.797419 21:0.799758 22:0.456542 23:0.355614 24:0.334317 25:0.526762 
98.37959974494915 1:0.508795 2:0.46947 3:0.400187 4:0.675445 5:0.672544 6:0.504205 7:0.399262 8:0.398005 9:0.523409 10:0.469931 11:0.347055 12:0.692913 13:0.700213 14:0.513727 15:0.415128 16:0.478922 17:0.464143 18:0.427939 19:0.410038 20:0.778726 21:0.784146 22:0.45989 23:0.323915 24:0.376836 25:0.450055 
100 1:0.359911 2:0.494478 3:0.275291 4:0.638733 5:0.641259 6:0.332664 7:0.443506 8:0.435641 9:0.483452 10:0.544062 11:0.251495 12:0.584514 13:0.584379 14:0.452504 15:0.4505 16:0.665286 17:0.320873 18:0.383757 19:0.333843 20:0.68886 21:0.687546 22:0.298829 23:0.307756 24:0.380546 25:0.619536 
100 1:0.346471 2:0.471288 3:0.320253 4:0.678726 5:0.684564 6:0.325275 7:0.414363 8:0.37797 9:0.460214 10:0.519324 11:0.284493 12:0.65041 13:0.650214 14:0.42579 15:0.459297 16:0.65805 17:0.397823 18:0.464881 19:0.30895 20:0.598809 21:0.599402 22:0.371897 23:0.381425 24:0.429723 25:0.660589 
100 1:0.369604 2:0.520273 3:0.396403 4:0.701461 5:0.700786 6:0.328562 7:0.499648 8:0.54189 9:0.463088 10:0.582321 11:0.302579 12:0.639821 13:0.642475 14:0.39319 15:0.641703 16:0.712424 17:0.409048 18:0.513355 19:0.383856 20:0.6622 21:0.660827 22:0.360197 23:0.427885 24:0.518135 25:0.427659 
100 1:0.504177 2:0.607573 3:0.331661 4:0.548521 5:0.545094 6:0.469784 7:0.564061 8:0.581508 9:0.597982 10:0.680519 11:0.25798 12:0.516944 13:0.523589 14:0.543262 15:0.714896 16:0.644442 17:0.620903 18:0.65111 19:0.277941 20:0.40446 21:0.420922 22:0.616776 23:0.389112 24:0.489058 25:0.466962 
100 1:0.388916 2:0.458256 3:0.39217 4:0.695277 5:0.692113 6:0.375846 7:0.364853 8:0.420028 9:0.502402 10:0.497221 11:0.309669 12:0.606822 13:0.607721 14:0.491246 15:0.433878 16:0.443332 17:0.243292 18:0.280901 19:0.360337 20:0.842179 21:0.841309 22:0.225004 23:0.282726 24:0.202878 25:0.447496 
100 1:0.661933 2:0.612338 3:0.142296 4:0.191919 5:0.185257 6:0.660535 7:0.413995 8:0.529572 9:0.648303 10:0.619191 11:0.148379 12:0.292101 13:0.297137 14:0.64568 15:0.430983 16:0.581777 17:0.688936 18:0.592836 19:0.179939 20:0.249397 21:0.248802 22:0.695486 23:0.386449 24:0.434066 25:0.593817 
100 1:0.651515 2:0.646096 3:0.142268 4:0.262646 5:0.253551 6:0.644189 7:0.453522 8:0.568855 9:0.617959 10:0.592621 11:0.146125 12:0.347572 13:0.347918 14:0.613369 15:0.402246 16:0.614121 17:0.668364 18:0.596695 19:0.174767 20:0.320199 21:0.319253 22:0.666876 23:0.399387 24:0.526457 25:0.533882 
100 1:0.694305 2:0.703212 3:0.140071 4:0.227711 5:0.221623 6:0.690811 7:0.424126 8:0.595137 9:0.742532 10:0.782138 11:0.118675 12:0.285123 13:0.283869 14:0.738335 15:0.472534 16:0.658848 17:0.72024 18:0.628065 19:0.176283 20:0.2371 21:0.235122 22:0.715272 23:0.442935 24:0.551029 25:0.641648 
100 1:0.612128 2:0.542116 3:0.213806 4:0.317129 5:0.309477 6:0.617526 7:0.352715 8:0.390757 9:0.594089 10:0.5432 11:0.223658 12:0.445423 13:0.448606 14:0.59849 15:0.328963 16:0.520369 17:0.652761 18:0.502283 19:0.237887 20:0.334945 21:0.334559 22:0.671524 23:0.308053 24:0.291695 25:0.518367 
100 1:0.605204 2:0.588241 3:0.203622 4:0.372018 5:0.360141 6:0.603749 7:0.379715 8:0.480265 9:0.564178 10:0.54495 11:0.220602 12:0.492608 13:0.491991 14:0.566022 15:0.328025 16:0.50431 17:0.622926 18:0.511729 19:0.228939 20:0.413232 21:0.412549 22:0.62659 23:0.373948 24:0.422474 25:0.517466 
100 1:0.668482 2:0.664646 3:0.180833 4:0.294 5:0.287279 6:0.665553 7:0.459709 8:0.4817 9:0.7076 10:0.754421 11:0.164689 12:0.391707 13:0.389843 14:0.694977 15:0.549137 16:0.628025 17:0.686441 18:0.580757 19:0.229091 20:0.315821 21:0.314412 22:0.690328 23:0.41657 24:0.410473 25:0.632112 
100 1:0.394304 2:0.49529 3:0.28319 4:0.621131 5:0.618973 6:0.343492 7:0.654735 8:0.4383 9:0.550772 10:0.653754 11:0.210417 12:0.519667 13:0.51951 14:0.493081 15:0.649263 16:0.610247 17:0.37749 18:0.513841 19:0.336385 20:0.713524 21:0.719566 22:0.311712 23:0.509267 24:0.508727 25:0.409922 
100 1:0.400571 2:0.501807 3:0.290588 4:0.625726 5:0.623476 6:0.356034 7:0.63602 8:0.406759 9:0.568794 10:0.659967 11:0.203399 12:0.499374 13:0.498803 14:0.515132 15:0.655578 16:0.588199 17:0.372926 18:0.519496 19:0.353563 20:0.731594 21:0.737541 22:0.311068 23:0.479554 24:0.529534 25:0.400379 
100 1:0.397493 2:0.465426 3:0.300455 4:0.617923 5:0.615657 6:0.358924 7:0.60567 8:0.37076 9:0.550217 10:0.651079 11:0.216705 12:0.518711 13:0.518933 14:0.50233 15:0.612851 16:0.580308 17:0.352112 18:0.464428 19:0.366279 20:0.742356 21:0.747957 22:0.299536 23:0.472131 24:0.40007 25:0.415858 
100 1:0.349273 2:0.492637 3:0.40813 4:0.740331 5:0.744567 6:0.309303 7:0.482182 8:0.483433 9:0.354039 10:0.430842 11:0.386643 12:0.746362 13:0.751208 14:0.306006 15:0.43755 16:0.531613 17:0.360813 18:0.487489 19:0.326756 20:0.692185 21:0.69167 22:0.294748 23:0.400964 24:0.627419 25:0.471031 
100 1:0.45809 2:0.493766 3:0.267781 4:0.438466 5:0.434168 6:0.443544 7:0.445027 8:0.427403 9:0.404251 10:0.419013 11:0.253014 12:0.476731 13:0.478515 14:0.393583 15:0.341525 16:0.411652 17:0.520558 18:0.509811 19:0.2942 20:0.436832 21:0.436577 22:0.520225 23:0.336944 24:0.387426 25:0.395438 
100 1:0.460081 2:0.539336 3:0.279542 4:0.475643 5:0.473416 6:0.441262 7:0.451749 8:0.510733 9:0.405326 10:0.41373 11:0.272395 12:0.526327 13:0.527498 14:0.389511 15:0.376856 16:0.410306 17:0.521253 18:0.568822 19:0.291703 20:0.498297 21:0.496972 22:0.50057 23:0.408911 24:0.540991 25:0.357065 
100 1:0.387989 2:0.425458 3:0.242199 4:0.626071 5:0.620477 6:0.381421 7:0.326631 8:0.326756 9:0.372493 10:0.341671 11:0.206602 12:0.626487 13:0.627265 14:0.365022 15:0.297454 16:0.375987 17:0.462225 18:0.486403 19:0.280512 20:0.554509 21:0.566599 22:0.448304 23:0.385244 24:0.398324 25:0.387781 
100 1:0.434999 2:0.555738 3:0.273817 4:0.642106 5:0.639414 6:0.395361 7:0.642949 8:0.383187 9:0.48404 10:0.525918 11:0.243541 12:0.646166 13:0.649609 14:0.457675 15:0.478598 16:0.530932 17:0.582424 18:0.670968 19:0.226407 20:0.546074 21:0.543314 22:0.547979 23:0.591466 24:0.456769 25:0.485322 
32.53135344488818 1:0.378861 2:0.517022 3:0.417042 4:0.74859 5:0.74357 6:0.330999 7:0.460967 8:0.69652 9:0.455472 10:0.575505 11:0.404468 12:0.741343 13:0.745728 14:0.384332 15:0.619594 16:0.643783 17:0.565284 18:0.65362 19:0.270129 20:0.539068 21:0.528127 22:0.517841 23:0.593609 24:0.596605 25:0.473881 
100 1:0.425765 2:0.513702 3:0.39519 4:0.723601 5:0.726773 6:0.398732 7:0.432576 8:0.578463 9:0.423397 10:0.492588 11:0.407699 12:0.771127 13:0.768855 14:0.386488 15:0.410749 16:0.615758 17:0.491954 18:0.537701 19:0.320399 20:0.603161 21:0.611351 22:0.473465 23:0.353843 24:0.558517 25:0.414012 
100 1:0.433295 2:0.507807 3:0.46742 4:0.750519 5:0.755633 6:0.407584 7:0.492559 8:0.498129 9:0.506509 10:0.580535 11:0.433589 12:0.735422 13:0.734965 14:0.477313 15:0.46778 16:0.608109 17:0.568407 18:0.615863 19:0.330467 20:0.587813 21:0.595371 22:0.55265 23:0.334205 24:0.658095 25:0.589175 
100 1:0.377964 2:0.550017 3:0.305201 4:0.70256 5:0.705053 6:0.323361 7:0.576315 8:0.56908 9:0.348731 10:0.454709 11:0.279663 12:0.74928 13:0.75017 14:0.258926 15:0.588345 16:0.614233 17:0.411039 18:0.557284 19:0.256411 20:0.632436 21:0.634482 22:0.326223 23:0.623688 24:0.530202 25:0.334878 
100 1:0.390577 2:0.548678 3:0.300698 4:0.693227 5:0.694275 6:0.349762 7:0.48485 8:0.577219 9:0.357711 10:0.477259 11:0.286274 12:0.75313 13:0.754513 14:0.266023 15:0.574309 16:0.62446 17:0.419237 18:0.558616 19:0.275793 20:0.637683 21:0.639695 22:0.344055 23:0.57924 24:0.571478 25:0.376052 
100 1:0.455066 2:0.623645 3:0.323143 4:0.651835 5:0.653008 6:0.412519 7:0.59011 8:0.599124 9:0.423754 10:0.522727 11:0.315791 12:0.72273 13:0.724597 14:0.363503 15:0.552301 16:0.660528 17:0.442345 18:0.560214 19:0.347943 20:0.638304 21:0.639221 22:0.386916 23:0.592903 24:0.393195 25:0.442138 
100 1:0.427429 2:0.590212 3:0.288969 4:0.670519 5:0.67269 6:0.367645 7:0.628927 8:0.640267 9:0.397589 10:0.529608 11:0.286169 12:0.736055 13:0.737362 14:0.296666 15:0.650178 16:0.713602 17:0.441918 18:0.571866 19:0.242854 20:0.593809 21:0.595635 22:0.349953 23:0.674145 24:0.571145 25:0.403361 
100 1:0.272025 2:0.328486 3:0.34729 4:0.838418 5:0.838358 6:0.25478 7:0.254843 8:0.341631 9:0.417775 10:0.426487 11:0.266342 12:0.727285 13:0.7277 14:0.395181 15:0.412012 16:0.38544 17:0.26624 18:0.318621 19:0.351712 20:0.807685 21:0.808019 22:0.261637 23:0.19996 24:0.272275 25:0.632273 
100 1:0.423478 2:0.518155 3:0.276487 4:0.587293 5:0.590179 6:0.40005 7:0.461275 8:0.435234 9:0.582498 10:0.667064 11:0.179733 12:0.470183 13:0.464759 14:0.507585 15:0.787563 16:0.686669 17:0.522788 18:0.538468 19:0.258255 20:0.475536 21:0.476247 22:0.500262 23:0.397288 24:0.516157 25:0.456669 
91.68367381022445 1:0.330047 2:0.387724 3:0.327719 4:0.714909 5:0.719437 6:0.314976 7:0.348656 8:0.367381 9:0.383698 10:0.425462 11:0.338931 12:0.692432 13:0.687122 14:0.35599 15:0.3907 16:0.463578 17:0.344852 18:0.371601 19:0.346493 20:0.765876 21:0.762308 22:0.32669 23:0.254453 24:0.437301 25:0.446647 
100 1:0.348748 2:0.477288 3:0.312112 4:0.692633 5:0.695455 6:0.319573 7:0.442944 8:0.405332 9:0.511048 10:0.611183 11:0.27967 12:0.569784 13:0.568761 14:0.45733 15:0.622156 16:0.614544 17:0.441736 18:0.504931 19:0.272493 20:0.556183 21:0.556309 22:0.407901 23:0.486981 24:0.375152 25:0.397219 
12.19152227811357 1:0.341754 2:0.439745 3:0.367267 4:0.863181 5:0.866033 6:0.325441 7:0.344286 8:0.407254 9:0.344908 10:0.416182 11:0.315579 12:0.868727 13:0.868483 14:0.299563 15:0.392594 16:0.602804 17:0.498278 18:0.569761 19:0.250883 20:0.63405 21:0.624812 22:0.480734 23:0.435006 24:0.404472 25:0.468388 
100 1:0.557315 2:0.628021 3:0.350359 4:0.71503 5:0.720803 6:0.55075 7:0.486078 8:0.334209 9:0.640796 10:0.656873 11:0.297647 12:0.672666 13:0.671891 14:0.620302 15:0.594567 16:0.491722 17:0.76102 18:0.709642 19:0.224817 20:0.418619 21:0.413436 22:0.764676 23:0.455914 24:0.468374 25:0.715579 
100 1:0.460361 2:0.534303 3:0.418585 4:0.769107 5:0.772924 6:0.444746 7:0.495413 8:0.358231 9:0.590467 10:0.612214 11:0.320431 12:0.686769 13:0.685604 14:0.570212 15:0.530854 16:0.600723 17:0.56762 18:0.611458 19:0.353861 20:0.593245 21:0.596645 22:0.562885 23:0.400303 24:0.396221 25:0.596426 
100 1:0.528799 2:0.58467 3:0.349444 4:0.721983 5:0.727939 6:0.517468 7:0.490206 8:0.396875 9:0.62543 10:0.639508 11:0.287633 12:0.668664 13:0.665287 14:0.608727 15:0.564739 16:0.51125 17:0.702052 18:0.687788 19:0.267812 20:0.431762 21:0.427765 22:0.705223 23:0.430961 24:0.416628 25:0.63384 
49.13617533345056 1:0.511534 2:0.521769 3:0.297465 4:0.418274 5:0.415201 6:0.504927 7:0.399977 8:0.421641 9:0.561262 10:0.516533 11:0.320198 12:0.523254 13:0.514608 14:0.5478 15:0.524517 16:0.40652 17:0.579341 18:0.560708 19:0.282496 20:0.384485 21:0.385329 22:0.568932 23:0.463555 24:0.400944 25:0.415164 
-100 1:0.468386 2:0.583937 3:0.318854 4:0.694286 5:0.692508 6:0.436181 7:0.549461 8:0.550511 9:0.59037 10:0.597527 11:0.236956 12:0.57562 13:0.572431 14:0.57964 15:0.484357 16:0.499443 17:0.474211 18:0.594204 19:0.310968 20:0.686904 21:0.682058 22:0.436285 23:0.43276 24:0.581671 25:0.525855 
-100 1:0.444662 2:0.545253 3:0.415486 4:0.684353 5:0.684864 6:0.411941 7:0.532805 8:0.478213 9:0.607727 10:0.723719 11:0.41731 12:0.654885 13:0.654244 14:0.564061 15:0.608692 16:0.828251 17:0.542812 18:0.593413 19:0.331974 20:0.538606 21:0.544142 22:0.52696 23:0.446979 24:0.424303 25:0.594677 
-58.93715206298069 1:0.356234 2:0.436864 3:0.301958 4:0.683612 5:0.682075 6:0.335745 7:0.407153 8:0.393956 9:0.353334 10:0.417612 11:0.422051 12:0.804496 13:0.804745 14:0.31501 15:0.435221 16:0.494566 17:0.390462 18:0.39532 19:0.314638 20:0.648813 21:0.648201 22:0.377958 23:0.268798 24:0.426497 25:0.724017 
-100 1:0.350085 2:0.426732 3:0.230805 4:0.620419 5:0.617928 6:0.338781 7:0.395239 8:0.240417 9:0.413669 10:0.447712 11:0.187563 12:0.601009 13:0.60451 14:0.389693 15:0.422948 16:0.468181 17:0.436485 18:0.409278 19:0.214297 20:0.429477 21:0.430494 22:0.444278 23:0.29604 24:0.183914 25:0.423091 
-90.74746686343275 1:0.520071 2:0.695061 3:0.25384 4:0.478442 5:0.467785 6:0.463454 7:0.71885 8:0.59687 9:0.574747 10:0.686255 11:0.183658 12:0.424438 13:0.423654 14:0.526488 15:0.569223 16:0.877604 17:0.62076 18:0.716941 19:0.215989 20:0.451656 21:0.450926 22:0.56953 23:0.650289 24:0.628124 25:0.384155 
-100 1:0.49627 2:0.574499 3:0.318375 4:0.633415 5:0.630607 6:0.48676 7:0.411701 8:0.474483 9:0.543973 10:0.585959 11:0.345554 12:0.67083 13:0.671819 14:0.527191 15:0.429133 16:0.624824 17:0.615473 18:0.552327 19:0.301524 20:0.547183 21:0.557168 22:0.624911 23:0.335306 24:0.362098 25:0.576532 
-59.50513226504071 1:0.544433 2:0.677041 3:0.414922 4:0.662964 5:0.658535 6:0.505658 7:0.61427 8:0.687897 9:0.544908 10:0.611533 11:0.539583 12:0.753624 13:0.75142 14:0.492406 15:0.570201 16:0.842637 17:0.446394 18:0.567641 19:0.466529 20:0.76689 21:0.768893 22:0.385444 23:0.490858 24:0.633103 25:0.656182 
-100 1:0.532983 2:0.617973 3:0.27099 4:0.530486 5:0.525547 6:0.518984 7:0.466519 8:0.47054 9:0.499237 10:0.561707 11:0.235625 12:0.598101 13:0.600616 14:0.470754 15:0.494727 16:0.607958 17:0.500842 18:0.578273 19:0.333601 20:0.645335 21:0.628286 22:0.470732 23:0.460694 24:0.494883 25:0.513457 
-100 1:0.460229 2:0.498916 3:0.211282 4:0.607975 5:0.605204 6:0.445574 7:0.468552 8:0.39097 9:0.449638 10:0.533295 11:0.200329 12:0.657545 13:0.660135 14:0.413655 15:0.477757 16:0.589978 17:0.595924 18:0.660564 19:0.190293 20:0.56927 21:0.5702 22:0.575888 23:0.501164 24:0.468944 25:0.505491 
-100 1:0.350178 2:0.510503 3:0.29296 4:0.651143 5:0.648485 6:0.310497 7:0.514431 8:0.465917 9:0.393032 10:0.438635 11:0.229277 12:0.584726 13:0.591316 14:0.363194 15:0.482455 16:0.382399 17:0.393892 18:0.449499 19:0.266374 20:0.634049 21:0.63418 22:0.394483 23:0.289168 24:0.232044 25:0.532317 
-100 1:0.402987 2:0.538292 3:0.408154 4:0.804704 5:0.805997 6:0.360213 7:0.556763 8:0.545201 9:0.523798 10:0.575716 11:0.303538 12:0.740142 13:0.736752 14:0.480494 15:0.572813 16:0.705351 17:0.485026 18:0.556009 19:0.329989 20:0.667129 21:0.671785 22:0.428807 23:0.549406 24:0.556353 25:0.658658 
-100 1:0.424562 2:0.527996 3:0.238663 4:0.537203 5:0.532824 6:0.401609 7:0.450041 8:0.477658 9:0.482568 10:0.521714 11:0.191726 12:0.461598 13:0.446442 14:0.455535 15:0.427734 16:0.550163 17:0.387145 18:0.438241 19:0.291377 20:0.648099 21:0.645639 22:0.367356 23:0.351623 24:0.388849 25:0.430492 
-100 1:0.399578 2:0.5248 3:0.327081 4:0.754037 5:0.752665 6:0.359437 7:0.565362 8:0.428051 9:0.435666 10:0.469578 11:0.251292 12:0.690369 13:0.691288 14:0.395996 15:0.501625 16:0.596735 17:0.446691 18:0.474362 19:0.364332 20:0.744219 21:0.740975 22:0.428191 23:0.385378 24:0.433727 25:0.350028 
-50.34675438074073 1:0.40487 2:0.506807 3:0.283882 4:0.673454 5:0.67425 6:0.38855 7:0.418043 8:0.418683 9:0.470283 10:0.513204 11:0.243224 12:0.644945 13:0.642697 14:0.441322 15:0.453453 16:0.541306 17:0.286143 18:0.346168 19:0.294554 20:0.775413 21:0.775499 22:0.264791 23:0.321637 24:0.226929 25:0.514363 
-100 1:0.387682 2:0.493251 3:0.308106 4:0.646412 5:0.648737 6:0.361763 7:0.461182 8:0.444179 9:0.360024 10:0.418878 11:0.2552 12:0.677277 13:0.680419 14:0.318383 15:0.502011 16:0.396093 17:0.404566 18:0.469925 19:0.267221 20:0.607152 21:0.607805 22:0.400557 23:0.263496 24:0.380471 25:0.520013 
-100 1:0.478696 2:0.57859 3:0.277747 4:0.476499 5:0.47391 6:0.460681 7:0.468152 8:0.434261 9:0.532706 10:0.57584 11:0.224949 12:0.518583 13:0.526255 14:0.487386 15:0.641949 16:0.495834 17:0.424755 18:0.467663 19:0.38822 20:0.649071 21:0.649022 22:0.40046 23:0.390704 24:0.436465 25:0.452417 
-100 1:0.412292 2:0.503841 3:0.418116 4:0.761885 5:0.759978 6:0.394369 7:0.467252 8:0.355609 9:0.494475 10:0.584592 11:0.408238 12:0.746618 13:0.746179 14:0.454176 15:0.533266 16:0.53079 17:0.579693 18:0.658654 19:0.286654 20:0.53435 21:0.54902 22:0.564006 23:0.424993 24:0.496257 25:0.600675 
-100 1:0.360889 2:0.440861 3:0.323197 4:0.753446 5:0.752111 6:0.339126 7:0.402225 8:0.405981 9:0.405557 10:0.440218 11:0.292485 12:0.753135 13:0.755558 14:0.375563 15:0.426284 16:0.480118 17:0.36651 18:0.451951 19:0.280925 20:0.743157 21:0.746652 22:0.336826 23:0.419185 24:0.321322 25:0.511298 
-71.4457106002468 1:0.540519 2:0.555576 3:0.192497 4:0.474659 5:0.470953 6:0.535996 7:0.418984 8:0.430372 9:0.53414 10:0.536002 11:0.16124 12:0.482496 13:0.48901 14:0.510778 15:0.493534 16:0.412407 17:0.677547 18:0.596396 19:0.197949 20:0.460638 21:0.461543 22:0.684951 23:0.429967 24:0.265366 25:0.509253 
-100 1:0.545498 2:0.59391 3:0.244875 4:0.547178 5:0.54452 6:0.526794 7:0.542786 8:0.488265 9:0.582677 10:0.567168 11:0.204174 12:0.506255 13:0.51094 14:0.570083 15:0.423849 16:0.587592 17:0.626191 18:0.584952 19:0.235528 20:0.457916 21:0.459218 22:0.611942 23:0.505078 24:0.418261 25:0.466705 
-8.725375318760669 1:0.908592 2:0.77304 3:0.158283 4:0.0466884 5:0.0508055 6:0.908735 7:0.506728 8:0.571652 9:0.920109 10:0.798548 11:0.206751 12:0.1923 13:0.192895 14:0.919891 15:0.648809 16:0.588399 17:0.862761 18:0.789202 19:0.231157 20:0.262892 21:0.259824 22:0.858413 23:0.531839 24:0.632365 25:0.602137 
-61.29581828334168 1:0.51429 2:0.501214 3:0.241866 4:0.43908 5:0.43894 6:0.517011 7:0.358779 8:0.277749 9:0.568333 10:0.551582 11:0.205794 12:0.459879 13:0.465695 14:0.553314 15:0.451125 16:0.470016 17:0.302914 18:0.304959 19:0.293525 20:0.743985 21:0.743684 22:0.300468 23:0.233277 24:0.241407 25:0.469392 
-100 1:0.510847 2:0.525124 3:0.191298 4:0.347646 5:0.353313 6:0.498913 7:0.402519 8:0.50622 9:0.528496 10:0.497916 11:0.171615 12:0.393015 13:0.393002 14:0.524396 15:0.395868 16:0.43517 17:0.595426 18:0.561387 19:0.190359 20:0.337485 21:0.340287 22:0.59184 23:0.4013 24:0.381756 25:0.470794 
-100 1:0.374697 2:0.447121 3:0.304749 4:0.728048 5:0.722928 6:0.344467 7:0.466676 8:0.490178 9:0.378794 10:0.405833 11:0.261385 12:0.738432 13:0.739968 14:0.344314 15:0.477692 16:0.427528 17:0.381237 18:0.436647 19:0.316572 20:0.757297 21:0.757582 22:0.332967 23:0.338742 24:0.503662 25:0.339402 
-67.7681886505904 1:0.564669 2:0.585907 3:0.180925 4:0.298605 5:0.291372 6:0.5596 7:0.420215 8:0.456641 9:0.648749 10:0.690437 11:0.239984 12:0.407739 13:0.406376 14:0.628277 15:0.520088 16:0.621865 17:0.661718 18:0.558246 19:0.177885 20:0.190864 21:0.193916 22:0.6603 23:0.446766 24:0.409903 25:0.609874 
-100 1:0.348115 2:0.441039 3:0.309736 4:0.744252 5:0.742557 6:0.326441 7:0.423803 8:0.359412 9:0.402381 10:0.508294 11:0.309571 12:0.742802 13:0.743042 14:0.334317 15:0.622947 16:0.573616 17:0.433472 18:0.480467 19:0.283847 20:0.661282 21:0.661513 22:0.419946 23:0.338831 24:0.43183 25:0.599805 
-100 1:0.369171 2:0.462389 3:0.262174 4:0.704578 5:0.688409 6:0.344206 7:0.386721 8:0.487374 9:0.357917 10:0.395701 11:0.227143 12:0.715276 13:0.717158 14:0.313805 15:0.489033 16:0.462734 17:0.332976 18:0.420801 19:0.257429 20:0.741268 21:0.742575 22:0.288209 23:0.416954 24:0.4196 25:0.517976 
-100 1:0.60663 2:0.542553 3:0.218292 4:0.392423 5:0.387036 6:0.611523 7:0.368798 8:0.382048 9:0.698888 10:0.614161 11:0.257768 12:0.452276 13:0.450554 14:0.690194 15:0.488598 16:0.590773 17:0.716808 18:0.544871 19:0.216096 20:0.284222 21:0.285129 22:0.736182 23:0.249875 24:0.462509 25:0.491105 
-100 1:0.614226 2:0.653778 3:0.211243 4:0.448423 5:0.442721 6:0.587811 7:0.499153 8:0.792113 9:0.74021 10:0.599897 11:0.158118 12:0.299575 13:0.305066 14:0.746133 15:0.431928 16:0.564299 17:0.787061 18:0.810208 19:0.180543 20:0.4005 21:0.39285 22:0.736939 23:0.653687 24:0.847798 25:0.327753 
-100 1:0.448201 2:0.558164 3:0.179136 4:0.492924 5:0.488532 6:0.433751 7:0.449775 8:0.397162 9:0.437548 10:0.458316 11:0.181595 12:0.523642 13:0.525565 14:0.403029 15:0.508296 16:0.520375 17:0.475091 18:0.450456 19:0.234925 20:0.433633 21:0.430684 22:0.480108 23:0.288551 24:0.290815 25:0.343192 
-100 1:0.396415 2:0.522627 3:0.389581 4:0.740783 5:0.738748 6:0.362777 7:0.533356 8:0.421285 9:0.437292 10:0.542382 11:0.318639 12:0.711621 13:0.715353 14:0.363271 15:0.604728 16:0.719516 17:0.454955 18:0.500615 19:0.297465 20:0.676366 21:0.672012 22:0.446821 23:0.339746 24:0.368862 25:0.421522 
-100 1:0.350548 2:0.369244 3:0.313027 4:0.703373 5:0.700898 6:0.33592 7:0.376003 8:0.329801 9:0.442231 10:0.475512 11:0.319838 12:0.707465 13:0.706338 14:0.414232 15:0.465184 16:0.483295 17:0.39399 18:0.408561 19:0.320906 20:0.701079 21:0.700486 22:0.389477 23:0.328145 24:0.245331 25:0.570061 
-100 1:0.400678 2:0.433612 3:0.281296 4:0.583872 5:0.579132 6:0.39404 7:0.382623 8:0.245905 9:0.481177 10:0.487378 11:0.238457 12:0.510854 13:0.509045 14:0.476763 15:0.350589 16:0.439896 17:0.450929 18:0.450936 19:0.2925 20:0.60487 21:0.604124 22:0.453054 23:0.315751 24:0.275447 25:0.648062 
-50.22453262507167 1:0.551652 2:0.585142 3:0.164462 4:0.360624 5:0.362835 6:0.533909 7:0.517629 8:0.511246 9:0.550684 10:0.539393 11:0.170119 12:0.399289 13:0.403703 14:0.529814 15:0.484844 16:0.591965 17:0.595189 18:0.593866 19:0.196148 20:0.37177 21:0.371619 22:0.581361 23:0.450553 24:0.483156 25:0.394411 
-100 1:0.49383 2:0.517368 3:0.280089 4:0.49384 5:0.491085 6:0.482393 7:0.511943 8:0.298019 9:0.524935 10:0.532617 11:0.287901 12:0.554424 13:0.55371 14:0.491275 15:0.566476 16:0.580164 17:0.503907 18:0.470668 19:0.348013 20:0.579728 21:0.580412 22:0.514181 23:0.274009 24:0.299719 25:0.582045 
-100 1:0.564217 2:0.613266 3:0.33677 4:0.582952 5:0.580572 6:0.550013 7:0.492364 8:0.501625 9:0.563673 10:0.554732 11:0.282011 12:0.591568 13:0.59869 14:0.552224 15:0.515531 16:0.390951 17:0.370472 18:0.443086 19:0.372669 20:0.825495 21:0.832594 22:0.335171 23:0.407044 24:0.422352 25:0.522146 
-100 1:0.603074 2:0.54887 3:0.478584 4:0.634401 5:0.632918 6:0.602599 7:0.382991 8:0.445239 9:0.632674 10:0.523707 11:0.4619 12:0.660551 13:0.665586 14:0.630235 15:0.391119 16:0.564394 17:0.242372 18:0.318709 19:0.484423 20:0.896019 21:0.897537 22:0.217621 23:0.223919 24:0.34185 25:0.450599 
-100 1:0.452737 2:0.532165 3:0.287714 4:0.661811 5:0.659566 6:0.432406 7:0.449596 8:0.519278 9:0.395768 10:0.440163 11:0.281222 12:0.751698 13:0.751732 14:0.369944 15:0.401182 16:0.499902 17:0.457041 18:0.564583 19:0.245136 20:0.658767 21:0.664639 22:0.415524 23:0.469972 24:0.556957 25:0.522045 
-100 1:0.481904 2:0.509788 3:0.266457 4:0.57919 5:0.575928 6:0.461738 7:0.496689 8:0.494098 9:0.483943 10:0.518206 11:0.284978 12:0.654179 13:0.658935 14:0.448231 15:0.469264 16:0.671043 17:0.615773 18:0.535182 19:0.236848 20:0.392637 21:0.398508 22:0.615858 23:0.424123 24:0.364407 25:0.476538 
-100 1:0.379764 2:0.521592 3:0.393469 4:0.73414 5:0.725663 6:0.343519 7:0.49303 8:0.509054 9:0.427406 10:0.537632 11:0.414555 12:0.736847 13:0.733867 14:0.358666 15:0.573815 16:0.736848 17:0.417975 18:0.491963 19:0.346413 20:0.701441 21:0.70078 22:0.380444 23:0.485475 24:0.375394 25:0.647299 
-100 1:0.371442 2:0.461215 3:0.331866 4:0.716283 5:0.717334 6:0.335132 7:0.512993 8:0.459092 9:0.47134 10:0.539421 11:0.258559 12:0.623551 13:0.624332 14:0.421471 15:0.650812 16:0.47708 17:0.25771 18:0.335232 19:0.307918 20:0.800419 21:0.802189 22:0.213655 23:0.345645 24:0.256217 25:0.54001 
-100 1:0.517412 2:0.595373 3:0.235817 4:0.485038 5:0.495856 6:0.496918 7:0.485558 8:0.541315 9:0.671841 10:0.687677 11:0.173668 12:0.35895 13:0.358025 14:0.654873 15:0.540014 16:0.639993 17:0.653298 18:0.626234 19:0.184024 20:0.299797 21:0.286443 22:0.648122 23:0.436457 24:0.482906 25:0.45626 
-100 1:0.498183 2:0.667265 3:0.359165 4:0.627349 5:0.62087 6:0.421327 7:0.768125 8:0.747646 9:0.496472 10:0.606474 11:0.27947 12:0.597655 13:0.598124 14:0.432583 15:0.601788 16:0.735565 17:0.580313 18:0.727101 19:0.305995 20:0.596918 21:0.597321 22:0.503328 23:0.677578 24:0.651219 25:0.500577 
-100 1:0.464126 2:0.548763 3:0.324415 4:0.762233 5:0.763344 6:0.45249 7:0.437509 8:0.358944 9:0.562676 10:0.597241 11:0.27341 12:0.690763 13:0.690948 14:0.543335 15:0.476092 16:0.543025 17:0.597826 18:0.60127 19:0.251546 20:0.520114 21:0.519559 22:0.590555 23:0.448257 24:0.397913 25:0.678191 
-5.794009863268003 1:0.653701 2:0.665924 3:0.235916 4:0.536772 5:0.54936 6:0.651662 7:0.463133 8:0.393043 9:0.723341 10:0.731478 11:0.214265 12:0.491653 13:0.490901 14:0.712287 15:0.542398 16:0.581241 17:0.578893 18:0.524412 19:0.282036 20:0.484168 21:0.488561 22:0.571584 23:0.444672 24:0.364661 25:0.528122 
-100 1:0.49659 2:0.560266 3:0.38702 4:0.656707 5:0.656045 6:0.490812 7:0.405272 8:0.380212 9:0.582467 10:0.661618 11:0.267033 12:0.588452 13:0.589291 14:0.561866 15:0.528123 16:0.555837 17:0.379445 18:0.504726 19:0.358855 20:0.711365 21:0.72075 22:0.338295 23:0.338051 24:0.488656 25:0.506355 
-100 1:0.348236 2:0.422991 3:0.380234 4:0.754183 5:0.750717 6:0.329018 7:0.416937 8:0.357555 9:0.363101 10:0.415479 11:0.318591 12:0.743554 13:0.7442 14:0.324812 15:0.449898 16:0.498515 17:0.374802 18:0.477701 19:0.281588 20:0.682589 21:0.684221 22:0.326959 23:0.366894 24:0.511776 25:0.436639 
-59.13218369815183 1:0.583376 2:0.59394 3:0.261326 4:0.464594 5:0.461216 6:0.573736 7:0.565999 8:0.30279 9:0.624264 10:0.648977 11:0.236386 12:0.474619 13:0.482458 14:0.581934 15:0.737257 16:0.555603 17:0.650252 18:0.578752 19:0.229181 20:0.362308 21:0.370353 22:0.666993 23:0.283436 24:0.379202 25:0.499618 
